svm_type one_class
kernel_type rbf
gamma 0.5
nr_class 2
total_sv 51
rho 48.528845846652985
SV
1.0 0:0.04 1:0.03 2:0.02 3:0.06 
1.0 0:0.02 1:0.09 2:0.4 3:0.1 
1.0 0:0.01 1:0.14 2:0.11 3:0.08 
1.0 0:0.05 1:0.13 2:0.5 3:0.03 
1.0 0:0.1 1:0.03 2:0.14 3:0.08 
1.0 0:0.1 1:0.01 2:0.11 3:0.06 
1.0 0:0.09 1:0.19 2:0.12 3:0.04 
1.0 0:0.07 1:0.03 2:0.49 3:0.08 
1.0 0:0.1 1:0.1 2:0.08 3:0.08 
1.0 0:0.02 1:0.13 2:0.04 3:0.09 
1.0 0:0.08 1:0.18 2:0.05 3:0.05 
1.0 0:0.07 1:0.02 2:0.4 3:0.08 
1.0 0:0.05 1:0.0 2:0.0 3:0.09 
1.0 0:0.04 1:0.05 2:0.49 3:0.0 
1.0 0:0.07 1:0.14 2:0.41 3:0.03 
1.0 0:0.05 1:0.05 2:0.48 3:0.0 
1.0 0:0.05 1:0.18 2:0.38 3:0.1 
1.0 0:0.06 1:0.07 2:0.41 3:0.01 
1.0 0:0.1 1:0.02 2:0.39 3:0.02 
1.0 0:0.06 1:0.03 2:0.01 3:0.04 
1.0 0:0.02 1:0.07 2:0.44 3:0.1 
1.0 0:0.09 1:0.15 2:0.47 3:0.0 
1.0 0:0.04 1:0.18 2:0.0 3:0.01 
1.0 0:0.1 1:0.05 2:0.05 3:0.01 
1.0 0:0.03 1:0.18 2:0.38 3:0.02 
1.0 0:0.06 1:0.06 2:0.0 3:0.07 
1.0 0:0.05 1:0.14 2:0.4 3:0.07 
1.0 0:0.04 1:0.2 2:0.35 3:0.07 
1.0 0:0.05 1:0.01 2:0.04 3:0.08 
1.0 0:0.06 1:0.15 2:0.11 3:0.01 
1.0 0:0.06 1:0.08 2:0.41 3:0.02 
1.0 0:0.03 1:0.12 2:0.49 3:0.1 
0.28764299682667027 0:0.06 1:0.08 2:0.4 3:0.04 
1.0 0:0.01 1:0.07 2:0.48 3:0.05 
1.0 0:0.0 1:0.12 2:0.03 3:0.07 
1.0 0:0.1 1:0.13 2:0.41 3:0.0 
1.0 0:0.01 1:0.03 2:0.37 3:0.0 
1.0 0:0.01 1:0.09 2:0.47 3:0.0 
1.0 0:0.07 1:0.09 2:0.41 3:0.09 
1.0 0:0.06 1:0.06 2:0.05 3:0.03 
1.0 0:0.04 1:0.05 2:0.46 3:0.07 
0.7123570031733297 0:0.0 1:0.08 2:0.15 3:0.0 
1.0 0:0.04 1:0.01 2:0.4 3:0.06 
1.0 0:0.04 1:0.1 2:0.46 3:0.03 
1.0 0:0.0 1:0.18 2:0.44 3:0.05 
1.0 0:0.05 1:0.06 2:0.5 3:0.0 
1.0 0:0.08 1:0.16 2:0.09 3:0.05 
1.0 0:0.0 1:0.18 2:0.11 3:0.06 
1.0 0:0.05 1:0.2 2:0.01 3:0.08 
1.0 0:0.07 1:0.13 2:0.04 3:0.09 
1.0 0:0.03 1:0.03 2:0.08 3:0.1 
